{
  "layers": [
    [
      {
        "index": 0,
        "bias": 0.3359187285433889,
        "value": 0.1,
        "derivative": 0.0,
        "error": 0.0
      },
      {
        "index": 1,
        "bias": 0.3343200825272075,
        "value": 0.5,
        "derivative": 0.0,
        "error": 0.0
      },
      {
        "index": 2,
        "bias": 0.35648150935774975,
        "value": 0.2,
        "derivative": 0.0,
        "error": 0.0
      },
      {
        "index": 3,
        "bias": 0.47542512882286514,
        "value": 0.9,
        "derivative": 0.0,
        "error": 0.0
      }
    ],
    [
      {
        "index": 0,
        "weights": [
          0.17871919981238762,
          0.46357248761405845,
          0.3281483626708044,
          0.40004608352177684
        ],
        "bias": 0.5734855379098176,
        "value": 0.7770946385120585,
        "derivative": 0.1732185613078716,
        "error": -3.1199072628052224E-7
      },
      {
        "index": 1,
        "weights": [
          0.4932715024013027,
          0.2640548737384974,
          0.1048716809556605,
          0.38332389197428196
        ],
        "bias": 0.3439494171268154,
        "value": 0.7091521540987997,
        "derivative": 0.20625537643583194,
        "error": -3.690300478986745E-7
      },
      {
        "index": 2,
        "weights": [
          0.18634069394041247,
          0.20591174710200577,
          0.28262341697826887,
          0.45321739734636035
        ],
        "bias": 0.5177506486990437,
        "value": 0.7509641276295995,
        "derivative": 0.18701700664311408,
        "error": -3.419756892767474E-7
      },
      {
        "index": 3,
        "weights": [
          0.3769993095585883,
          0.24590127027678046,
          0.3331709105912423,
          0.29885134025961196
        ],
        "bias": 0.5738668452212945,
        "value": 0.7446193174214247,
        "derivative": 0.19016138954427625,
        "error": -3.2720884071965195E-7
      },
      {
        "index": 4,
        "weights": [
          0.35036081867230623,
          0.3497941698241154,
          0.14329039229850124,
          0.46355785844706804
        ],
        "bias": 0.324912380648428,
        "value": 0.7272482199025381,
        "derivative": 0.1983582465511277,
        "error": -3.2706283300569754E-7
      },
      {
        "index": 5,
        "weights": [
          0.4044546940091001,
          0.2536568902339004,
          0.1664239830969884,
          0.10525132520607691
        ],
        "bias": 0.5355681465696871,
        "value": 0.6965352726251008,
        "derivative": 0.21137388661417728,
        "error": -3.285866501499026E-7
      },
      {
        "index": 6,
        "weights": [
          0.35099921563726966,
          0.3407034598444355,
          0.4865808220448225,
          0.2586316554887601
        ],
        "bias": 0.5863833588296464,
        "value": 0.7543446208941726,
        "derivative": 0.1853088138221996,
        "error": -3.107747470012075E-7
      }
    ],
    [
      {
        "index": 0,
        "weights": [
          0.2625697722378872,
          0.09005388241589952,
          0.29015587598871395,
          0.26870489740652914,
          0.25523532041641184,
          0.2417799459124265,
          0.3587235855935606
        ],
        "bias": 0.275252219998875,
        "value": 0.8300193065373674,
        "derivative": 0.1410872573125951,
        "error": -1.7199395643248422E-7
      },
      {
        "index": 1,
        "weights": [
          0.3850041213557677,
          0.40408932123612346,
          0.44457656846464033,
          0.2301809821500881,
          0.13253912685873184,
          0.15878360348858975,
          0.42210557986823843
        ],
        "bias": 0.5776832654042464,
        "value": 0.8997172882835041,
        "derivative": 0.09022608944728211,
        "error": -2.3342890435622538E-7
      },
      {
        "index": 2,
        "weights": [
          0.33912364482940155,
          0.3395163179107233,
          0.2810047896689785,
          0.3662620326517077,
          0.3462195592841324,
          0.25716699899565293,
          0.3289930202297258
        ],
        "bias": 0.5277574164542284,
        "value": 0.8997901580367327,
        "derivative": 0.09016782953696431,
        "error": -2.550821302607075E-7
      },
      {
        "index": 3,
        "weights": [
          0.18771407069412452,
          0.2144769103021018,
          0.3560626891013878,
          0.3102718577614566,
          0.36121718167740063,
          0.2984351678695326,
          0.36680877735491496
        ],
        "bias": 0.5716354833099587,
        "value": 0.8923808090706329,
        "derivative": 0.09603730067307555,
        "error": -2.2902898645590173E-7
      },
      {
        "index": 4,
        "weights": [
          0.21077357660398932,
          0.4679459385189412,
          0.3076827196029312,
          0.10769630222130801,
          0.43959785159588616,
          0.32007155808947196,
          0.09921067672065356
        ],
        "bias": 0.4180104045719299,
        "value": 0.863229310959017,
        "derivative": 0.11806446766023773,
        "error": -2.4633316941099814E-7
      },
      {
        "index": 5,
        "weights": [
          0.3928381889125007,
          0.21795110197308123,
          0.34265781114297,
          0.4357588183781475,
          0.14889888743460947,
          0.30598567700460466,
          0.41936719871509864
        ],
        "bias": 0.43138848587854856,
        "value": 0.8919468438576872,
        "derivative": 0.09637767158999778,
        "error": -2.9269601945405215E-7
      },
      {
        "index": 6,
        "weights": [
          0.3005588207700193,
          0.34499650637690416,
          0.31145035559124856,
          0.19692120985383,
          0.21007723861706343,
          0.10428079841575409,
          0.1403078802775003
        ],
        "bias": 0.5746549468924358,
        "value": 0.8537905894129586,
        "derivative": 0.12483221884283134,
        "error": -2.1300926765524466E-7
      },
      {
        "index": 7,
        "weights": [
          0.4486817486471638,
          0.30795583736630394,
          0.2723978037624942,
          0.14627004013479553,
          0.39445332778909653,
          0.4404520363641475,
          0.2778623941568781
        ],
        "bias": 0.6100566496633174,
        "value": 0.908366309286327,
        "derivative": 0.08323695743986392,
        "error": -1.649999939368364E-7
      },
      {
        "index": 8,
        "weights": [
          0.3340095012973198,
          0.12556538582726223,
          0.18574113475377446,
          0.16376527720930836,
          0.36527008136345107,
          0.12485442621887236,
          0.11086085780542619
        ],
        "bias": 0.4793798186489429,
        "value": 0.8213681311948088,
        "derivative": 0.14672252425235618,
        "error": -2.598674690239199E-7
      },
      {
        "index": 9,
        "weights": [
          0.13243722355176388,
          0.18374394112916542,
          0.11921823705990613,
          0.3069751812513796,
          0.43836120788063887,
          0.14786815783729435,
          0.4565112883103833
        ],
        "bias": 0.6128110382544298,
        "value": 0.8732823567051803,
        "derivative": 0.11066028217262655,
        "error": -2.0977685695847304E-7
      },
      {
        "index": 10,
        "weights": [
          0.47717454198851045,
          0.31947883472920974,
          0.23596853997511344,
          0.48368649649844775,
          0.3809229870132154,
          0.17549239229458574,
          0.2772178602737171
        ],
        "bias": 0.3942376717114604,
        "value": 0.8944810140002615,
        "derivative": 0.09438472959332551,
        "error": -2.6450826211947423E-7
      },
      {
        "index": 11,
        "weights": [
          0.38297747335400883,
          0.37524898489683123,
          0.24145040422691355,
          0.38080168324961255,
          0.33891314920574017,
          0.48384469720877804,
          0.34769486433217506
        ],
        "bias": 0.5928916622266739,
        "value": 0.9218140489907957,
        "derivative": 0.07207290807399064,
        "error": -1.0997617809600937E-7
      },
      {
        "index": 12,
        "weights": [
          0.3903240607544849,
          0.25528650931624114,
          0.18625358628977126,
          0.3082414191106065,
          0.21344713636623108,
          0.2126506484233224,
          0.32954765814994874
        ],
        "bias": 0.490724992708302,
        "value": 0.8694850333144689,
        "derivative": 0.1134808101566058,
        "error": -3.069530749785729E-7
      },
      {
        "index": 13,
        "weights": [
          0.30181212548898867,
          0.26461017976241047,
          0.4402261919755035,
          0.34003444549816153,
          0.14184352310048498,
          0.3769032544674034,
          0.3159105275665305
        ],
        "bias": 0.5640307864023909,
        "value": 0.8978897166968739,
        "derivative": 0.09168377334688144,
        "error": -2.456247254644562E-7
      },
      {
        "index": 14,
        "weights": [
          0.3543256335169438,
          0.26224822140023624,
          0.47720707972359117,
          0.14768107988814477,
          0.12272298997797483,
          0.2050509516981723,
          0.13997905319949866
        ],
        "bias": 0.6438335058736233,
        "value": 0.8711484321052372,
        "derivative": 0.11224884134582415,
        "error": -3.0306492468634543E-7
      },
      {
        "index": 15,
        "weights": [
          0.27195252696563044,
          0.31256674341335805,
          0.17027895880204538,
          0.39498126704047076,
          0.13568943762244562,
          0.35089947717604797,
          0.19271571523821732
        ],
        "bias": 0.5886755249360229,
        "value": 0.8734836269611009,
        "derivative": 0.1105099803919812,
        "error": -2.180380540165916E-7
      },
      {
        "index": 16,
        "weights": [
          0.299255239580365,
          0.23414479955190654,
          0.09760851163427177,
          0.15141687625245553,
          0.459587483313133,
          0.4178739548360304,
          0.3035981746077732
        ],
        "bias": 0.6104883243842081,
        "value": 0.8858916741805465,
        "derivative": 0.10108761579813495,
        "error": -1.716164308980233E-7
      },
      {
        "index": 17,
        "weights": [
          0.35814177252556917,
          0.4024046982206678,
          0.24687615931204407,
          0.47893880579417897,
          0.41936137294051595,
          0.41045947002779415,
          0.11934092500326633
        ],
        "bias": 0.4707019992704509,
        "value": 0.9052786978238262,
        "derivative": 0.08574917709022378,
        "error": -1.9843504479967578E-7
      },
      {
        "index": 18,
        "weights": [
          0.1018871059989184,
          0.30813697790688077,
          0.30359447646377374,
          0.13707418358171666,
          0.3603116177371411,
          0.2592360659975542,
          0.2179420247590076
        ],
        "bias": 0.46734885959873995,
        "value": 0.8458093129539591,
        "derivative": 0.13041591907431077,
        "error": -2.5407490461894534E-7
      },
      {
        "index": 19,
        "weights": [
          0.33073231514863505,
          0.3028442938582231,
          0.4142222136338902,
          0.2600245382667488,
          0.16719857495912285,
          0.1010008376342169,
          0.0987850148084726
        ],
        "bias": 0.30260737528774,
        "value": 0.8242670626783203,
        "derivative": 0.1448508720619743,
        "error": -2.984738041228006E-7
      },
      {
        "index": 20,
        "weights": [
          0.13137921346012577,
          0.27621666556651114,
          0.4195781402590066,
          0.36566885848310055,
          0.3552391976525208,
          0.31297280845210906,
          0.2929148428035076
        ],
        "bias": 0.5633211835830572,
        "value": 0.8952915452997209,
        "derivative": 0.09374459421455872,
        "error": -2.7212813305655866E-7
      },
      {
        "index": 21,
        "weights": [
          0.23072092314784015,
          0.30298093260135117,
          0.46760262918539547,
          0.16648416033171798,
          0.2622249523870033,
          0.38540193046644106,
          0.3536319924274416
        ],
        "bias": 0.5940267667718605,
        "value": 0.8992761476570298,
        "derivative": 0.09057855791216174,
        "error": -2.0836991567100448E-7
      },
      {
        "index": 22,
        "weights": [
          0.29528018319982113,
          0.3400506392668581,
          0.3569520511558848,
          0.4954188186047392,
          0.3135331302400627,
          0.16155134857623796,
          0.12961502951049228
        ],
        "bias": 0.5727050750836732,
        "value": 0.8926966540396103,
        "derivative": 0.09578933790609462,
        "error": -2.508222388897817E-7
      },
      {
        "index": 23,
        "weights": [
          0.2492785926877561,
          0.44889146838370203,
          0.12477255783421179,
          0.22587372727728064,
          0.11180872358477925,
          0.17651832935563408,
          0.4815030884518804
        ],
        "bias": 0.5722553032318288,
        "value": 0.8714312922344831,
        "derivative": 0.112038795149022,
        "error": -2.1305189834797082E-7
      },
      {
        "index": 24,
        "weights": [
          0.34695451749245054,
          0.3927308779727013,
          0.2202960831706328,
          0.28576137623565784,
          0.30161139419717165,
          0.38632487311464614,
          0.2365583708105599
        ],
        "bias": 0.33790781386699836,
        "value": 0.8733744342970262,
        "derivative": 0.11059153181337565,
        "error": -2.1789296810118597E-7
      },
      {
        "index": 25,
        "weights": [
          0.2073318856309957,
          0.22386036772260984,
          0.3148830259458123,
          0.1826522066550281,
          0.09964491855012478,
          0.1601221180060058,
          0.47931634983667426
        ],
        "bias": 0.28166499555078883,
        "value": 0.8204754137098274,
        "derivative": 0.147295509207515,
        "error": -2.6281867293211166E-7
      }
    ],
    [
      {
        "index": 0,
        "weights": [
          -0.13652196324831212,
          -0.20511156581737744,
          -0.23203124243065779,
          -0.37585428939772175,
          -0.45131720257476104,
          -0.4785169305558066,
          -0.3188682192428846,
          -0.14698257591735403,
          -0.06444354315719068,
          -0.42849348598822695,
          -0.4483335999532684,
          -0.2583924994372899,
          -0.23152363917396837,
          -0.40406698693596405,
          -0.2822067730457169,
          -0.1524525324360352,
          -0.18828697928844182,
          -0.143489943324298,
          -0.4211088632960699,
          -0.2970083385325705,
          -0.44618799956341243,
          -0.28108449956838655,
          -0.324390319694793,
          -0.13051718712273847,
          -0.23638113420364834,
          -0.08125853608887294
        ],
        "bias": -0.17133787820055613,
        "value": 0.0015446972824056477,
        "derivative": 0.0015423111927113764,
        "error": 2.382646619961291E-6
      },
      {
        "index": 1,
        "weights": [
          0.41250934451114285,
          0.1305697188669081,
          0.23259373493667884,
          0.27256291482221034,
          0.3854517382853456,
          0.17262692694463339,
          0.24285437770182353,
          0.4567559396879766,
          0.29455646385305406,
          0.250110475172861,
          0.4823838081572534,
          0.12428507567715692,
          0.3237025151723597,
          0.38474386786370074,
          0.3350092590600561,
          0.34995885707465535,
          0.2136992335265494,
          0.18465076678908823,
          0.17692253592549617,
          0.28064431433860065,
          0.3724196002209813,
          0.11215706510038174,
          0.2924379853705777,
          0.154685904050426,
          0.3096085450085029,
          0.2769973774396758
        ],
        "bias": 0.6683079735062432,
        "value": 0.9990758846597212,
        "derivative": 9.232613511166697E-4,
        "error": -8.532323639648709E-7
      },
      {
        "index": 2,
        "weights": [
          -0.11869072302735571,
          -0.3683388719670601,
          -0.39309328557072504,
          -0.18273352980209703,
          -0.20782242742785892,
          -0.3306796787603901,
          -0.07258081577356111,
          -0.09112340313789,
          -0.3536162890361409,
          -0.1531783119495208,
          -0.4236277438299739,
          -0.2175981009063964,
          -0.3217749461540513,
          -0.4263652930426824,
          -0.26285574764683306,
          -0.3589453518027251,
          -0.29192379849508815,
          -0.30811917121272864,
          -0.09930492093353342,
          -0.3539137793977458,
          -0.2795347965568288,
          -0.3392380747108335,
          -0.3251109649690378,
          -0.2493282314940942,
          -0.22893244388839634,
          -0.351099320063497
        ],
        "bias": -0.23672844199464813,
        "value": 0.001538416046951651,
        "derivative": 0.0015360493230181327,
        "error": 2.3633217972032787E-6
      },
      {
        "index": 3,
        "weights": [
          -0.10988219895534959,
          -0.46949646817112023,
          -0.4830032996002252,
          -0.3468439066379905,
          -0.08034767976530396,
          -0.40705413916494737,
          -0.23878896686934714,
          -0.4318526772478098,
          -0.22310342085469392,
          -0.1258675210275724,
          -0.13518081558680534,
          -0.12192504062330761,
          -0.4695221626316028,
          -0.15995045576315306,
          -0.4711562885116212,
          -0.19463999387556855,
          -0.158460117564424,
          -0.45687181566700974,
          -0.23513847004162136,
          -0.11649156765828432,
          -0.36220037787020726,
          -0.3083428247876405,
          -0.34804813002844215,
          -0.3655733950110826,
          -0.2530674636409633,
          -0.2205856316688528
        ],
        "bias": -0.045480186940101024,
        "value": 0.001543249922777876,
        "derivative": 0.0015408683024537221,
        "error": 2.378186718850426E-6
      }
    ]
  ]
}