{
  "layers": [
    [
      {
        "index": 0,
        "bias": 0.3921799955754681,
        "value": 1.0,
        "derivative": 0.0,
        "error": 0.0
      },
      {
        "index": 1,
        "bias": 0.5317011734025936,
        "value": 1.0,
        "derivative": 0.0,
        "error": 0.0
      },
      {
        "index": 2,
        "bias": 0.42316588091648377,
        "value": 1.0,
        "derivative": 0.0,
        "error": 0.0
      },
      {
        "index": 3,
        "bias": 0.538193435328034,
        "value": 1.0,
        "derivative": 0.0,
        "error": 0.0
      },
      {
        "index": 4,
        "bias": 0.5103798330269581,
        "value": 0.0,
        "derivative": 0.0,
        "error": 0.0
      },
      {
        "index": 5,
        "bias": 0.303896499490829,
        "value": 1.0,
        "derivative": 0.0,
        "error": 0.0
      },
      {
        "index": 6,
        "bias": 0.36427480585466077,
        "value": 0.0,
        "derivative": 0.0,
        "error": 0.0
      }
    ],
    [
      {
        "index": 0,
        "weights": [
          -0.507543491576556,
          -0.2789429140385456,
          2.4011842780740102,
          0.14366587126120203,
          -1.5219012114218253,
          0.1967425829287427,
          0.16189523244756723
        ],
        "bias": 0.3701938043939601,
        "value": 0.9109508217242489,
        "derivative": 0.08111942212416459,
        "error": -1.7412390665188474E-5
      },
      {
        "index": 1,
        "weights": [
          -1.487846791000898,
          -0.25675274885000166,
          1.569718795040893,
          -2.8483281791973685,
          -0.3202282600545976,
          1.0126295629486146,
          -0.1951891189810432
        ],
        "bias": 0.8233483765014237,
        "value": 0.2337545377210045,
        "derivative": 0.17911335381584398,
        "error": 4.1924906456043696E-5
      },
      {
        "index": 2,
        "weights": [
          1.8505671586413246,
          1.8044715514253804,
          -2.5564562285475843,
          3.2417673828068,
          1.185633942717071,
          -1.7929753984577061,
          -0.15053747033162757
        ],
        "bias": -1.2026081422976749,
        "value": 0.7932726689242696,
        "derivative": 0.16399114166203574,
        "error": 3.655212661944911E-5
      },
      {
        "index": 3,
        "weights": [
          2.6263909098451226,
          -0.9237768182391223,
          0.2921528762570241,
          -0.04441663036360479,
          1.5972132435751132,
          -1.256439276166714,
          -0.002983923341813325
        ],
        "bias": -0.6776733726756673,
        "value": 0.5040593329734837,
        "derivative": 0.24998352181581038,
        "error": -1.035006452861584E-5
      },
      {
        "index": 4,
        "weights": [
          2.6027703462991503,
          -0.7813811341848214,
          0.501087933813669,
          0.566006796371623,
          1.4608313443640484,
          -1.5260901807756508,
          0.19239108532056526
        ],
        "bias": -1.097909890978082,
        "value": 0.5657382052963793,
        "derivative": 0.24567848836441109,
        "error": -4.0001784264307724E-5
      },
      {
        "index": 5,
        "weights": [
          -0.5082002570023479,
          0.5703945605077403,
          0.4702185502928637,
          0.25966469029067646,
          -0.7893430579713075,
          0.6550021188738099,
          0.03759490653820417
        ],
        "bias": 0.468853427501811,
        "value": 0.8716842336696106,
        "derivative": 0.11185083044143433,
        "error": -1.3846126343955693E-5
      },
      {
        "index": 6,
        "weights": [
          1.2841699362866434,
          1.5745482521461225,
          -3.2099819703709414,
          1.954377954985477,
          0.3853183388537612,
          -1.3921768367883514,
          -0.19515557303204292
        ],
        "bias": -0.6881154475772718,
        "value": 0.38291869419002156,
        "derivative": 0.2362919678298303,
        "error": 3.772308695989413E-5
      },
      {
        "index": 7,
        "weights": [
          -1.6009129961556563,
          1.5817784734803915,
          0.6474332777824435,
          1.2842378019593024,
          -2.0424923783191122,
          0.3079118135213554,
          0.2876726307144264
        ],
        "bias": -0.24801887192896158,
        "value": 0.8778718259490678,
        "derivative": 0.10721288315391744,
        "error": -6.565368159790708E-5
      },
      {
        "index": 8,
        "weights": [
          1.1948320071888525,
          -0.28943535142467475,
          -1.8560574464970276,
          -0.937410621480231,
          3.555726299224529,
          -1.960044293213032,
          1.115173096306583
        ],
        "bias": -0.8309064867328717,
        "value": 0.009202616671992766,
        "derivative": 0.009117928518381127,
        "error": 1.6223668728157285E-5
      },
      {
        "index": 9,
        "weights": [
          1.5177888587629746,
          -0.41238464002491904,
          -1.973383437535948,
          -1.001652601677366,
          3.411911069391719,
          -2.0344426320669062,
          1.008447865555952
        ],
        "bias": -0.6765281032721541,
        "value": 0.010144748335164998,
        "derivative": 0.010041832416381166,
        "error": 1.9375704528293554E-5
      },
      {
        "index": 10,
        "weights": [
          0.08916988055977644,
          -1.7440886767946222,
          0.44365638827167586,
          0.11132830593194351,
          0.6527009435109041,
          -0.8739827716837687,
          1.0093020274947224
        ],
        "bias": 0.19912153389973525,
        "value": 0.14494699468840555,
        "derivative": 0.12393736341920489,
        "error": -7.401120071757797E-5
      },
      {
        "index": 11,
        "weights": [
          -0.025933968057676792,
          -2.5236863801700107,
          3.257994316213199,
          0.12490476171701168,
          -0.42412892222315485,
          -0.855189656917973,
          -0.3017302642282535
        ],
        "bias": 0.6618457759834675,
        "value": 0.6547387329328201,
        "derivative": 0.22605592453034537,
        "error": -2.2520495797830096E-5
      },
      {
        "index": 12,
        "weights": [
          3.1169760734904353,
          0.3002034315378618,
          -0.906119102914891,
          1.6531492833219328,
          0.2981881795071302,
          -1.3333545580712631,
          0.7330627403929773
        ],
        "bias": -0.8692955621785085,
        "value": 0.8767016340689067,
        "derivative": 0.10809587888981553,
        "error": -2.110271085255903E-5
      },
      {
        "index": 13,
        "weights": [
          0.13785857774585347,
          -3.423501121858647,
          2.8079864664092207,
          -3.8551444711746603,
          0.7994185310550515,
          -0.9461013409097776,
          0.5864799302542173
        ],
        "bias": 1.2077308678726466,
        "value": 0.016771326946346195,
        "derivative": 0.01649004953880496,
        "error": 4.999639079826994E-5
      },
      {
        "index": 14,
        "weights": [
          -2.8516082074359517,
          2.182104413011532,
          -0.781326826925269,
          -2.1150080702186007,
          -1.2075980221132916,
          1.4295420767495413,
          1.7058461870375194
        ],
        "bias": 0.9247139223687079,
        "value": 0.2294211315678914,
        "derivative": 0.17678707595799967,
        "error": 2.8276591530947185E-5
      }
    ],
    [
      {
        "index": 0,
        "weights": [
          -0.14663355074509926,
          -0.24213417026214004,
          1.6432899057085453,
          0.35852606927415476,
          0.621968011127992,
          0.9773448379135378,
          1.2609101055658494,
          1.6282648187118869,
          -0.9611991741075558,
          -1.137240694367905,
          -1.2591912683307214,
          -1.9696926222891127,
          1.0385249222867663,
          -4.361805043025784,
          1.1354493665176446
        ],
        "bias": 0.6288997690295576,
        "value": 0.9904757759334214,
        "derivative": 0.009433513222508207,
        "error": -1.956144060296136E-5
      },
      {
        "index": 1,
        "weights": [
          -1.8089407035861218,
          -1.3651646322040685,
          2.0829337342870886,
          -0.14944521711137448,
          -0.39183389128018603,
          -1.1157140587226435,
          2.449691769381613,
          -1.1268347427986352,
          1.7437600029514928,
          1.9167473456508886,
          -0.5735849672452542,
          -2.811670479234577,
          -0.36560410501122115,
          -2.2014443722718484,
          0.06869774019934861
        ],
        "bias": -1.688042319258998,
        "value": 0.003858314262808984,
        "derivative": 0.0038434276738583887,
        "error": -2.899419006112137E-8
      },
      {
        "index": 2,
        "weights": [
          -0.01353472560926996,
          0.7182045813986532,
          -0.4540457908328254,
          0.30213046478186784,
          0.2029596898158873,
          -0.05355905139358091,
          0.2187993946066861,
          -0.23058273328312645,
          0.07965712117839478,
          0.4111728301320244,
          0.3711803386368288,
          0.5929930305352445,
          -0.018343355138724402,
          1.1069256542876338,
          -0.08282270078833323
        ],
        "bias": 0.3184483220202003,
        "value": 0.6561199512966318,
        "derivative": 0.2256265608071373,
        "error": -2.766621386045946E-5
      },
      {
        "index": 3,
        "weights": [
          -0.7335701042920113,
          -2.828768555176937,
          4.978555384278768,
          0.977283806791208,
          1.1774166123322118,
          -0.4537866331030854,
          3.4449963968507844,
          -0.12808381540504407,
          0.564998973217327,
          0.8650981482118921,
          -0.9606378921382275,
          -1.1419515018422606,
          1.8463538242094373,
          -3.935794371221925,
          -2.826790822764792
        ],
        "bias": -1.0891938268338526,
        "value": 0.9715782795388633,
        "derivative": 0.027613926267165672,
        "error": 1.4928601853277362E-4
      },
      {
        "index": 4,
        "weights": [
          0.5789092854010417,
          0.6975009477337378,
          0.1215436797854146,
          0.43593158468918386,
          0.2016191019623729,
          0.601061167925883,
          0.17091738896384434,
          0.31043531004755914,
          0.4720765785282412,
          0.3214660070580689,
          0.35160608627181983,
          0.6503988147109295,
          0.4175242182527115,
          0.7212979091909723,
          0.5578852718975362
        ],
        "bias": 0.6263679846158331,
        "value": 0.9733883652419305,
        "derivative": 0.025903455653572598,
        "error": -7.273040727713096E-7
      },
      {
        "index": 5,
        "weights": [
          0.36072219815234374,
          0.6806134469858597,
          0.18718903142016446,
          0.46782488572207576,
          0.09470169158969784,
          0.47508814624033857,
          0.1348346915310911,
          0.32606486298407045,
          0.21107870696026937,
          0.21558725631795844,
          0.3844893935410109,
          0.5029294591222561,
          0.049097346873890814,
          0.5825599129734216,
          0.39610242776277504
        ],
        "bias": 0.9645461392513112,
        "value": 0.9598809955948419,
        "derivative": 0.03850946989069704,
        "error": -1.5668000325920204E-6
      },
      {
        "index": 6,
        "weights": [
          -0.02161114186881556,
          -1.6190971330468715,
          2.919376283110747,
          1.7291803303294555,
          2.3268841727049967,
          0.4351845939666561,
          2.0712476876862684,
          1.0454171237865273,
          1.9316791819169046,
          2.262306041612141,
          0.371755643757904,
          -1.0970081150673947,
          3.1995073706353345,
          -3.1181303612711133,
          0.05045197729152771
        ],
        "bias": -0.9546931128253565,
        "value": 0.9993779596837685,
        "derivative": 6.216533820764585E-4,
        "error": -3.297122116035424E-5
      },
      {
        "index": 7,
        "weights": [
          0.4006900807360173,
          0.3487201120038224,
          0.6066531277511598,
          -2.036232435271588,
          -1.8431037372817063,
          0.7080270094544038,
          1.054253561340955,
          1.4116037506349899,
          -1.3760393610505866,
          -1.3007302640405523,
          -0.6457854449576692,
          -1.339228106506068,
          -1.7395552842262794,
          -1.3193231156165817,
          2.593033322983917
        ],
        "bias": 0.6195328351840416,
        "value": 0.44761034322133947,
        "derivative": 0.24725532386261417,
        "error": 9.864457651878668E-6
      },
      {
        "index": 8,
        "weights": [
          0.47300747278072447,
          0.6381878014137332,
          0.3964712304051329,
          -0.7169140808515189,
          -0.9138428710930574,
          0.8833066257261226,
          0.6323406573846497,
          0.9432851420721045,
          -0.7337459075330641,
          -0.5423995860461551,
          -1.070134613390217,
          -1.4378487940424305,
          -0.4996254297801444,
          -1.609454698279403,
          2.593106788098053
        ],
        "bias": 0.699752172513782,
        "value": 0.8288165571081274,
        "derivative": 0.14187967177155758,
        "error": 1.0401338370970861E-4
      },
      {
        "index": 9,
        "weights": [
          -1.854235325481189,
          -0.9359684476183215,
          2.874935010391185,
          1.1727314106104119,
          1.1902799603426641,
          -1.191247430846799,
          2.8230983925404805,
          -1.6894141059468044,
          4.467553161012236,
          4.650366071374522,
          0.621903638223395,
          -2.457707184126968,
          0.4854584907353723,
          0.16492727604145702,
          0.44896829767251867
        ],
        "bias": -2.345172060009084,
        "value": 0.04531379773588251,
        "derivative": 0.04326045747063404,
        "error": 1.609445936232844E-5
      },
      {
        "index": 10,
        "weights": [
          0.599687978726886,
          0.5559293757926741,
          0.9936176592668933,
          -2.4028555019882463,
          -2.461075618224026,
          0.978679380495172,
          1.1998397002324226,
          2.046762614867155,
          -1.833973000702787,
          -1.8475561054308247,
          -0.46083493622223515,
          -1.369399354018209,
          -2.097631491775418,
          -1.9020685731423492,
          3.195204117933547
        ],
        "bias": 0.8993289033566364,
        "value": 0.6754061988326399,
        "derivative": 0.2192326654110844,
        "error": 1.676322995046017E-5
      },
      {
        "index": 11,
        "weights": [
          0.3396952250807066,
          0.47672429468323546,
          -0.32989886728488904,
          0.5207413428793811,
          0.17953790907887746,
          0.05688448856070959,
          0.047529569357045796,
          -0.040235672279553394,
          0.2202164591294225,
          0.4426155464946357,
          0.2821331823595504,
          0.3610318225289834,
          0.17943296114603222,
          1.1619532503041656,
          -0.06995968783784592
        ],
        "bias": 0.35663280768436656,
        "value": 0.7952511328585233,
        "derivative": 0.16282676854575862,
        "error": -1.423860784584344E-5
      },
      {
        "index": 12,
        "weights": [
          -1.8750761312324806,
          -1.4221707745597874,
          1.9643417263486431,
          -0.5511795170961072,
          -0.6562438369630293,
          -0.6409517734409758,
          2.9044081125031873,
          -0.1866890585860942,
          0.4301116445005275,
          0.578498206733928,
          -0.7044606926975664,
          -3.6100760234385483,
          -0.050375515546611085,
          -2.86876904243899,
          0.582908718635351
        ],
        "bias": -0.581251192197639,
        "value": 0.023258476161651925,
        "derivative": 0.022717519448289796,
        "error": -2.2841215656955027E-8
      },
      {
        "index": 13,
        "weights": [
          -0.314911191742879,
          2.2481287771832426,
          -2.186743721359478,
          0.008932191982253111,
          -0.5260922104043938,
          -0.19296810033430947,
          -0.9136530580315971,
          -0.7336830089126036,
          0.7101647440675537,
          0.6402202905544397,
          -0.9450747696367076,
          -0.48226468516426574,
          -0.8982096103626667,
          2.444724500842893,
          1.392531736037743
        ],
        "bias": -0.00934447148869479,
        "value": 0.021303423719072602,
        "derivative": 0.020849587856918258,
        "error": 1.6570894186652686E-4
      },
      {
        "index": 14,
        "weights": [
          -1.3002715526946844,
          1.298490970946476,
          -1.5602381409429564,
          -0.011903299491778574,
          -0.6089628651341653,
          -0.3476900788557408,
          0.22604512713548394,
          -1.5121620905251145,
          2.5592426798423564,
          2.5412858200933166,
          0.32316711309350277,
          -0.11895599326322848,
          -1.2641501849216668,
          3.2222875995132765,
          0.5088582770432158
        ],
        "bias": 0.40459150417377876,
        "value": 0.010689108102779918,
        "derivative": 0.010574851070747002,
        "error": 1.404596611208909E-4
      }
    ],
    [
      {
        "index": 0,
        "weights": [
          -1.8493318779729502,
          -2.4450358167650728,
          -1.1427642008434191,
          -7.257901422999304,
          -1.2918348042671672,
          -1.3723382642315112,
          3.1173643999519887,
          -0.8550630048448626,
          -0.1754188258399823,
          5.817162815124659,
          -1.2166646563746788,
          -1.0503241261109006,
          -2.1959473265024645,
          1.5257577556995843,
          0.18241586466831272
        ],
        "bias": -1.4806394258350923,
        "value": 3.6503759347455575E-6,
        "derivative": 3.6503626095010924E-6,
        "error": 5.5733853722291154E-5
      },
      {
        "index": 1,
        "weights": [
          -2.0772132569265747,
          -2.1817625717851055,
          -0.5745652349945283,
          -2.0830503628350683,
          -0.21642278497844747,
          -0.4730685662567064,
          -9.321682018550144,
          2.1334629587868927,
          1.0742707649151266,
          -3.8887520863930103,
          3.3166555092745766,
          -0.7061242393250535,
          -1.3984310663835446,
          -0.13458642366609988,
          0.25891927527840397
        ],
        "bias": 0.021994939613126385,
        "value": 1.4957525227558981E-5,
        "derivative": 1.4957301499998049E-5,
        "error": 3.3739178734702875E-11
      },
      {
        "index": 2,
        "weights": [
          -4.921334162111747,
          -2.35805055778612,
          -0.9494541371260294,
          4.327805366891438,
          -1.5232771397251794,
          -1.5174190778634498,
          0.12814871302111117,
          -2.0904623634613624,
          -4.048410368791436,
          5.08513103227062,
          -2.5298149526753937,
          -1.132187631051865,
          -3.2254951699718104,
          -2.2088507872631458,
          1.6680945099516413
        ],
        "bias": -1.634109162147812,
        "value": 3.649254212308591E-6,
        "derivative": 3.649240895252285E-6,
        "error": 2.133217345516717E-8
      },
      {
        "index": 3,
        "weights": [
          -1.0675992061007649,
          -1.3121462717835617,
          0.08873265191716516,
          -3.2025259741273935,
          -0.4031731227286274,
          -0.43861444723664894,
          7.179394800823014,
          -2.6512953036017084,
          -2.429778273440845,
          -5.448354008777954,
          -3.691273779702787,
          -0.08445891531358546,
          -1.1057259224402745,
          -2.6367881889784477,
          -2.385195455212935
        ],
        "bias": -0.22037336703194102,
        "value": 0.01646656583743413,
        "derivative": 0.016195418046955578,
        "error": -5.163003200924033E-4
      },
      {
        "index": 4,
        "weights": [
          1.597544141512679,
          -1.0656505568540293,
          -1.9709466308928547,
          -5.196536747387141,
          -1.5915300926828106,
          -1.5523513234101172,
          1.3546264733247397,
          3.340427151640456,
          1.7450113210763898,
          -5.094201501693256,
          4.25568515486034,
          -2.189180806595985,
          -0.5131667982173178,
          -1.698521396212324,
          -2.7516635119612842
        ],
        "bias": -1.1539713206455482,
        "value": 0.021108645227061525,
        "derivative": 0.020663070323739575,
        "error": 1.290719060100745E-6
      },
      {
        "index": 5,
        "weights": [
          -0.23485846667079538,
          0.507841776018011,
          -2.3168187133149205,
          1.4254031707667516,
          -2.186629124891596,
          -2.3588120841784526,
          -0.3840404233257224,
          2.1784963170640657,
          1.821881879889353,
          4.085351613793616,
          3.182075935156169,
          -2.383834119065831,
          2.278662131603406,
          -1.8844622302663954,
          -4.412876648660949
        ],
        "bias": -2.170137427448589,
        "value": 0.011855190566890616,
        "derivative": 0.011714645023513322,
        "error": 1.6479272476213072E-10
      },
      {
        "index": 6,
        "weights": [
          0.5632666889509412,
          6.300985053768834,
          -1.482480747451613,
          1.2234134410763011,
          -1.8271621426441969,
          -1.6940224204918577,
          0.0673011712123906,
          -2.172587450222217,
          -1.1110620424230901,
          1.3051181761560386,
          -2.9215355622447037,
          -1.6987738846305203,
          3.7186652722813367,
          -1.3403022777076543,
          0.320619053518649
        ],
        "bias": -1.8668557192170845,
        "value": 7.461945646720626E-5,
        "derivative": 7.46138884039228E-5,
        "error": 9.669384644626136E-8
      },
      {
        "index": 7,
        "weights": [
          -3.0683650301218646,
          -1.6186631936446292,
          0.450141595570855,
          -3.233199666427156,
          0.17409349545740788,
          0.05219717581827454,
          -2.9509505728387113,
          -3.433025921509914,
          -2.595968279871559,
          -5.539959144831978,
          -4.9587223757531484,
          0.15665601152832326,
          -0.9769323627319336,
          2.5952888456729326,
          2.016520586875247
        ],
        "bias": 0.3466178516367012,
        "value": 2.0835854707184572E-7,
        "derivative": 2.083585036585616E-7,
        "error": 2.5573228229138953E-4
      },
      {
        "index": 8,
        "weights": [
          5.162000327421142,
          -2.984716326828855,
          -1.7703172566592542,
          1.6017084037010019,
          -1.7581365111860532,
          -1.5055529453658512,
          0.17559038988499523,
          -2.4067835124063186,
          -0.7948132073842507,
          6.035829785128045,
          -3.2822373915400567,
          -1.553531466449565,
          -3.8227716683073942,
          -1.9795068683977552,
          -3.9459078279594526
        ],
        "bias": -1.461227589978806,
        "value": 0.01738886417035425,
        "derivative": 0.017086491573219217,
        "error": 1.1904615793474807E-5
      },
      {
        "index": 9,
        "weights": [
          1.8718140271720853,
          -3.4594102442113814,
          -2.141039190150337,
          6.111016292578025,
          -2.03460056016759,
          -2.02885690861835,
          3.350002827411995,
          -0.14262037512418166,
          0.8286011505692722,
          -5.792933034496491,
          0.7737788233936039,
          -1.994797274833,
          -2.549539884416849,
          -2.774059774623138,
          -3.6716483897761263
        ],
        "bias": -1.4833989926077553,
        "value": 0.969195985196943,
        "derivative": 0.029855127475069992,
        "error": 1.039311645581465E-4
      }
    ]
  ]
}