{
  "layers": [
    [
      {
        "index": 0,
        "bias": 0.3515737235329785,
        "value": 1.0,
        "derivative": 0.0,
        "error": 0.0
      },
      {
        "index": 1,
        "bias": 0.3639408197258249,
        "value": 1.0,
        "derivative": 0.0,
        "error": 0.0
      },
      {
        "index": 2,
        "bias": 0.6296628436643656,
        "value": 1.0,
        "derivative": 0.0,
        "error": 0.0
      },
      {
        "index": 3,
        "bias": 0.45925690839453853,
        "value": 1.0,
        "derivative": 0.0,
        "error": 0.0
      },
      {
        "index": 4,
        "bias": 0.5632680328221917,
        "value": 0.0,
        "derivative": 0.0,
        "error": 0.0
      },
      {
        "index": 5,
        "bias": 0.6974477397727286,
        "value": 1.0,
        "derivative": 0.0,
        "error": 0.0
      },
      {
        "index": 6,
        "bias": 0.4314929071409371,
        "value": 0.0,
        "derivative": 0.0,
        "error": 0.0
      }
    ],
    [
      {
        "index": 0,
        "weights": [
          2.3262168847533213,
          2.268410887941499,
          -1.5580261034955676,
          1.968682164721025,
          1.0639893832527223,
          -1.6120473539688251,
          1.24893367782855
        ],
        "bias": -1.320505261318009,
        "value": 0.8882244094213273,
        "derivative": 0.09928180792946163,
        "error": 3.2734924011453813E-6
      },
      {
        "index": 1,
        "weights": [
          -1.1657911972348771,
          0.6788633757732105,
          0.9194863295685421,
          0.35909052488777066,
          -0.6806529880980025,
          0.40611030728143116,
          -0.6023035336998929
        ],
        "bias": 0.15175407075725164,
        "value": 0.7940500654725015,
        "derivative": 0.1635345589956176,
        "error": -2.5374924929783057E-5
      },
      {
        "index": 2,
        "weights": [
          4.541811415414251,
          -0.10999973862573674,
          -0.7173047203787397,
          0.7198357047917898,
          0.9412579885431284,
          -1.2427998737131627,
          0.5279267746988867
        ],
        "bias": -0.9197452744158999,
        "value": 0.9065142314797586,
        "derivative": 0.08474617960442123,
        "error": 4.057137246466611E-5
      },
      {
        "index": 3,
        "weights": [
          -1.786046691002307,
          2.2520301601808805,
          -0.22363249640626612,
          -0.08363340049757574,
          -2.1874007223454726,
          1.1022295031316935,
          -0.6827810901129273
        ],
        "bias": 0.2887650451195827,
        "value": 0.8248721492072177,
        "derivative": 0.14445808666948326,
        "error": -8.022795026249744E-5
      },
      {
        "index": 4,
        "weights": [
          -0.4627166294562963,
          0.03595192845018289,
          3.442327344956703,
          -1.3504726584785292,
          -1.4682922507306144,
          1.335320643780395,
          -1.0882792601364655
        ],
        "bias": 0.4284059619410576,
        "value": 0.9685930877992487,
        "derivative": 0.03042051806676561,
        "error": -6.840358842340547E-7
      },
      {
        "index": 5,
        "weights": [
          -0.7176912401506849,
          0.7553176126778547,
          2.690272185384207,
          -2.3519233431882216,
          -2.3818211462796106,
          1.9935991815019125,
          -0.7651753633218485
        ],
        "bias": 0.7382668341026587,
        "value": 0.9572150318453485,
        "derivative": 0.04095441465465695,
        "error": -1.2458421191210313E-6
      },
      {
        "index": 6,
        "weights": [
          -0.4699486154015721,
          3.5380087599054733,
          -1.8447768496666108,
          3.260045334636386,
          0.08957201487274677,
          -0.39151007097792107,
          -1.0529139563382814
        ],
        "bias": -1.358419330893016,
        "value": 0.938968925191869,
        "derivative": 0.05730628271589529,
        "error": -6.083454279892495E-6
      },
      {
        "index": 7,
        "weights": [
          1.5132589567923316,
          0.07574940097278912,
          -0.23183309946903075,
          1.0959213497017453,
          0.8471909439873495,
          -1.1488668557376722,
          0.9212776673144735
        ],
        "bias": -0.5517133540675433,
        "value": 0.6797267623412339,
        "derivative": 0.21769829089833764,
        "error": 3.41410421511403E-5
      },
      {
        "index": 8,
        "weights": [
          -1.2162767675938466,
          -1.065208526395235,
          2.991117461547323,
          -2.1027910508522205,
          0.5303883746745927,
          0.4897526589267118,
          0.00961819153975894
        ],
        "bias": 0.6102323679478137,
        "value": 0.42722703263092343,
        "derivative": 0.24470409522029932,
        "error": -7.084636930463085E-7
      },
      {
        "index": 9,
        "weights": [
          0.6030105804861978,
          2.419065357853705,
          -2.5618901730021935,
          0.33133135168256683,
          2.915620873335381,
          -1.168426330455888,
          1.3300102140388794
        ],
        "bias": -1.0674630670658425,
        "value": 0.19086918886149173,
        "derivative": 0.15443814160484792,
        "error": 7.952738655819935E-7
      },
      {
        "index": 10,
        "weights": [
          -1.919604587857364,
          3.467169853781045,
          -0.7005825007666852,
          0.7078180890377969,
          -0.5938126851864358,
          1.0479426833620162,
          -0.6664888529490454
        ],
        "bias": -0.11746748676595287,
        "value": 0.9231031486349701,
        "derivative": 0.07098372561517438,
        "error": -1.0507406806975521E-4
      },
      {
        "index": 11,
        "weights": [
          2.6817828425855996,
          -1.464317072624119,
          -0.08023999074792862,
          -1.1116859737818798,
          2.551667659543539,
          -1.1464098042813233,
          0.5349852684417677
        ],
        "bias": -0.8105769223217838,
        "value": 0.12659051431303375,
        "derivative": 0.11056535599899536,
        "error": 6.465307673090966E-5
      },
      {
        "index": 12,
        "weights": [
          -0.9948882085332047,
          -0.6572931632446634,
          3.1226359424698393,
          -0.6601495191253431,
          -0.19839846344837464,
          0.5002388414323757,
          -0.6017043730378966
        ],
        "bias": 0.61035325603699,
        "value": 0.8722384440524342,
        "derivative": 0.11143854076942279,
        "error": -1.6004261441052715E-6
      },
      {
        "index": 13,
        "weights": [
          0.3669190917614699,
          0.16389033652639115,
          -2.1557744458944175,
          1.4258767461684072,
          3.200674643307407,
          -2.128359455597908,
          0.5345832905985876
        ],
        "bias": -0.9285758529611232,
        "value": 0.037111040691352994,
        "derivative": 0.03573381135015774,
        "error": 1.1747624317005538E-6
      },
      {
        "index": 14,
        "weights": [
          0.2571721286005558,
          1.7335107428812127,
          -1.0234666290743917,
          2.0538301562183463,
          0.6063316933937622,
          -1.0844624537309817,
          0.15342913947296455
        ],
        "bias": -0.6959109628120324,
        "value": 0.7756811348169542,
        "derivative": 0.1739999119060363,
        "error": 2.445267565775967E-6
      }
    ],
    [
      {
        "index": 0,
        "weights": [
          -0.2611674504245056,
          -0.9209581774336241,
          2.0629780489214196,
          -1.8465606910101369,
          -0.05530644619769848,
          -0.404859673892175,
          -2.083231774202322,
          0.6777883864125542,
          0.7639783882163398,
          0.12131632250197762,
          -1.7901529846637958,
          2.834617775442567,
          0.038659604287812836,
          0.8549033231728871,
          -0.5461193562656579
        ],
        "bias": 0.40148040189830037,
        "value": 0.030661513375223597,
        "derivative": 0.02972138497276458,
        "error": 9.778671944472774E-5
      },
      {
        "index": 1,
        "weights": [
          -0.43598550400094815,
          0.2727994056572069,
          -0.3112327223141312,
          0.845480049420803,
          0.5916922090503147,
          0.9134039202922415,
          0.4576070556437665,
          -0.6514867161229364,
          0.3151225556376182,
          0.009173367432002448,
          1.2958348694845863,
          -0.35200754101355836,
          -0.03517335370553303,
          -0.41887367883035526,
          -0.21964320981698793
        ],
        "bias": 0.12223176692061864,
        "value": 0.9464732293232843,
        "derivative": 0.05066165549763802,
        "error": -1.1738236497761753E-5
      },
      {
        "index": 2,
        "weights": [
          -0.22451052526081894,
          0.22275669404611811,
          -0.40424564186030654,
          0.8017229604634067,
          0.328470811149373,
          0.699833389310233,
          0.5472529421732606,
          -0.4302183517280538,
          0.18654924085819896,
          0.011677396833239687,
          0.7635322512236671,
          -0.4449447218993294,
          0.3856258603610482,
          -0.4164973357558894,
          0.1064459521754096
        ],
        "bias": 0.26130910482212477,
        "value": 0.9466974900231057,
        "derivative": 0.050461352407057423,
        "error": -2.2017422679838022E-5
      },
      {
        "index": 3,
        "weights": [
          -0.6755698671201044,
          -0.8695885226999631,
          3.494813452673918,
          -1.8635616454606176,
          0.23898316656701984,
          -0.03716722833751386,
          -3.4529828134610963,
          0.7887140676741758,
          0.6239643392011451,
          -1.1268732271901616,
          -3.057342003710933,
          2.5228632373532234,
          -0.22267706370699403,
          -0.2606872317198231,
          -1.2013170566012188
        ],
        "bias": -0.11775786934051717,
        "value": 0.0028015675941123973,
        "derivative": 0.0027937188131280165,
        "error": 8.933198607386899E-5
      },
      {
        "index": 4,
        "weights": [
          0.30038116710863416,
          0.45825228541586194,
          0.10794994748823264,
          0.5862492323006246,
          0.6214881299398889,
          0.2879480161009835,
          0.19154899319599292,
          0.10060455415697063,
          0.36807477871953376,
          0.24940468781115926,
          0.32545928006806857,
          0.19622640733449087,
          0.508614196152243,
          0.18084682496080143,
          0.44439034655885035
        ],
        "bias": 0.8793282435343036,
        "value": 0.9894650399787626,
        "derivative": 0.010423974638588367,
        "error": -1.1503689280403933E-5
      },
      {
        "index": 5,
        "weights": [
          4.243972132431401,
          0.1569330645678762,
          2.9774397655463445,
          0.15597115552190097,
          -0.9333706032927382,
          -1.572573388895746,
          3.233148576395199,
          1.599257321684814,
          -1.6207904715624089,
          2.8324568709662574,
          1.469784112128441,
          1.089476215762463,
          -0.9780351167962668,
          1.4166250313558848,
          2.4360792186860434
        ],
        "bias": -1.0767655850639768,
        "value": 0.9999440338543686,
        "derivative": 5.5963013421957386E-5,
        "error": 7.512562216580618E-5
      },
      {
        "index": 6,
        "weights": [
          0.987468902960279,
          -0.3011104103511909,
          1.0023726311480554,
          -1.1880631517598739,
          -2.5817254803641245,
          -4.241449206949948,
          2.6374624382798904,
          0.6879521411410741,
          -2.188125145867158,
          2.132153119199018,
          -0.43734078384562913,
          0.5197848126605208,
          -1.2490932195425462,
          3.749627389464774,
          1.505551093223441
        ],
        "bias": -0.8497343486088752,
        "value": 0.01047866985888856,
        "derivative": 0.010368867336876982,
        "error": 1.705351613167029E-9
      },
      {
        "index": 7,
        "weights": [
          0.303799149365692,
          -1.2006088933447892,
          0.06014316680876369,
          -1.7968132230332228,
          -3.5121352347603145,
          -4.3385441285650845,
          0.309625604571513,
          -0.0219430949986224,
          -1.7616906668288115,
          2.278577497215076,
          -1.0286036092816344,
          1.0289286883114939,
          -1.8494928596408151,
          3.6221640372911614,
          0.10581909499992317
        ],
        "bias": -1.114420921209368,
        "value": 2.1756951640661753E-6,
        "derivative": 2.1756904304167283E-6,
        "error": 3.1365639958386735E-11
      },
      {
        "index": 8,
        "weights": [
          0.15656168227047576,
          0.37332793676556875,
          0.11882589066537655,
          0.5757247991985717,
          0.4558310921582445,
          0.6680838754552955,
          0.18774642387615814,
          0.3492851307427354,
          0.5872926280223935,
          0.3534935980900843,
          0.4053879517949293,
          0.10014705561440368,
          0.46969214675490123,
          0.3696841824194698,
          0.281900955096607
        ],
        "bias": 0.7615522602418343,
        "value": 0.9902600566046098,
        "derivative": 0.009645076898044789,
        "error": -9.97004450541815E-6
      },
      {
        "index": 9,
        "weights": [
          1.9677691184981032,
          -0.7293389283876703,
          0.5682908252678102,
          -0.6144001865967326,
          -2.7040732939061916,
          -2.502636933485416,
          1.099829326529856,
          0.27283479365241436,
          -0.794037059220824,
          6.138637889867908,
          0.5901709887180063,
          2.3840347013154695,
          -1.7240643056044906,
          3.425265825420376,
          0.9316367455602452
        ],
        "bias": -1.4113956404777697,
        "value": 0.047160327742768356,
        "derivative": 0.04493623122996303,
        "error": 2.4270773923932544E-9
      },
      {
        "index": 10,
        "weights": [
          -0.7505480847362351,
          -0.4738355022190698,
          0.5533877898300955,
          -0.8404813533565352,
          0.48707711040189744,
          0.6345078604209217,
          -2.4312838329745166,
          0.1989883006279942,
          1.046098129282671,
          -0.2833760784083055,
          -1.6825079194162051,
          1.0811600741608587,
          0.7003977296385985,
          0.11433402965281267,
          -0.828256378974994
        ],
        "bias": 0.46851503313318094,
        "value": 0.052886874738068496,
        "derivative": 0.05008985321850835,
        "error": -4.5385784462446905E-5
      },
      {
        "index": 11,
        "weights": [
          -0.4928906036203808,
          0.22718845509438582,
          -1.4305146572043272,
          1.7196771394165102,
          0.3277632413334105,
          0.9256728953737474,
          0.865117308338678,
          -0.8629713947290178,
          -0.3040518630069444,
          0.4953667761397115,
          2.0003712437426633,
          -1.525084456612511,
          -0.4880552055554872,
          -0.8464416616187331,
          0.04204135799458714
        ],
        "bias": -0.04718260758678293,
        "value": 0.9198313831024026,
        "derivative": 0.07374160976232362,
        "error": -6.017004406449145E-5
      },
      {
        "index": 12,
        "weights": [
          0.6223935812277306,
          -0.8252041208231571,
          0.3669255846537532,
          1.4664894222509808,
          -3.134673917325208,
          -2.321316665749384,
          1.1875430073627886,
          -0.4193535904765457,
          -3.9005582189092025,
          2.1064993979037365,
          1.6809969983135091,
          -1.1096824124424052,
          -3.126063174852485,
          1.2549039755241058,
          0.09125478255338075
        ],
        "bias": -0.49662203549215395,
        "value": 0.0026058682775815835,
        "derivative": 0.0025990777281014775,
        "error": 3.558372639185901E-9
      },
      {
        "index": 13,
        "weights": [
          0.3812433699055028,
          0.34696962866290615,
          0.3071104312597163,
          0.35208174698926664,
          0.5872049791135081,
          0.40570771320600196,
          0.15233041094391736,
          0.41559291176209445,
          0.7530660320759243,
          0.2817254015564375,
          0.5838803961282222,
          0.5443986755890184,
          0.41407716936858724,
          0.359406077992821,
          0.5540115164266046
        ],
        "bias": 0.920305300217843,
        "value": 0.994900765793825,
        "derivative": 0.005073232016685549,
        "error": -7.43313887919058E-6
      },
      {
        "index": 14,
        "weights": [
          4.543153034779624,
          -0.8906539914819158,
          4.446854452768468,
          -1.2207100758612928,
          -1.5675216150591713,
          -1.9555888076083319,
          2.2705890840587033,
          1.9109634214034255,
          -2.3634525762883616,
          2.305645723307814,
          -0.2341455602952969,
          2.0861761372555527,
          -1.7420448660919234,
          1.3169051368505047,
          1.7196082972262214
        ],
        "bias": -1.6509787581744957,
        "value": 0.9834329928755244,
        "derivative": 0.01629254139941314,
        "error": -8.652227870024093E-8
      }
    ],
    [
      {
        "index": 0,
        "weights": [
          0.45682120148164584,
          -0.7205309759795676,
          -1.1515400613935955,
          0.5419329011053442,
          -1.3183711866343493,
          0.43831301241504633,
          -7.40889640153119,
          -3.570823657371593,
          -1.431628480720553,
          7.876268931404932,
          0.24050272063034228,
          -0.9061770745983896,
          -2.708801742175466,
          -1.5972318989374634,
          2.114003331573582
        ],
        "bias": -1.7083637781642507,
        "value": 0.003039518353016022,
        "derivative": 0.003030279681197701,
        "error": 5.8130664606731194E-8
      },
      {
        "index": 1,
        "weights": [
          -1.9971058327927593,
          0.41500575360362457,
          0.29978433062291376,
          -3.1294312335583006,
          0.251990676583004,
          -8.885826431434243,
          -1.875419770418334,
          -1.4532995338067825,
          0.41651510199943875,
          -2.991224653030091,
          -0.11205517512023896,
          1.4846327465013205,
          -1.5377007614367753,
          0.43356409694692416,
          -4.526306628521119
        ],
        "bias": 1.266343207279602,
        "value": 1.0352373680087533E-4,
        "derivative": 1.0351301963679411E-4,
        "error": -4.553723519623327E-4
      },
      {
        "index": 2,
        "weights": [
          1.1317415796687869,
          -2.9743155012271334,
          -2.472665437839902,
          3.5965026487804725,
          -1.5922720377289246,
          -0.00883927958027217,
          4.170421724927717,
          0.6440857005522418,
          -1.691531614269932,
          1.4073020585928313,
          0.894092036863429,
          -3.6046150150353022,
          -2.4366680995061927,
          -1.6630225442587543,
          0.4886622685021964
        ],
        "bias": -1.5099871105778575,
        "value": 6.678603781075043E-7,
        "derivative": 6.678599320700197E-7,
        "error": 7.97932778146823E-13
      },
      {
        "index": 3,
        "weights": [
          1.324085332775924,
          -1.857606752702,
          -1.9801287349938235,
          3.201037049930259,
          -1.6736997721537406,
          5.873800286261718,
          -2.2276735667286016,
          -1.783639435541403,
          -1.9178222795247275,
          -6.930324094908368,
          0.407688065111822,
          -2.9253075754652635,
          -1.218511698025116,
          -1.5027995372731444,
          2.8158223557527893
        ],
        "bias": -1.4000861985494846,
        "value": 0.011966953332881017,
        "derivative": 0.011823745360809665,
        "error": 3.1794565066105553E-11
      },
      {
        "index": 4,
        "weights": [
          -2.1879439740649724,
          -0.3733078544367968,
          -0.36343459167472975,
          -2.3959971504422133,
          -0.5008651562853279,
          6.034553696533741,
          -1.039716680447955,
          -0.9505015724979662,
          -0.46402568417102164,
          -2.4238332098505957,
          -1.894190973849587,
          0.17329402960516974,
          -0.45943261207744474,
          -0.36941353382836895,
          -7.422222567531537
        ],
        "bias": -0.3379265447561667,
        "value": 0.022666058996607966,
        "derivative": 0.02215230876617025,
        "error": 3.1291961212977205E-4
      },
      {
        "index": 5,
        "weights": [
          -4.562575855592365,
          -0.3499169922145178,
          -0.44048704213870205,
          -2.816578108044052,
          -1.4981223664826802,
          0.20062188149880675,
          2.1314156391977113,
          -5.012817597366943,
          -1.3125635065609709,
          2.6203185918904244,
          -1.7180347372655465,
          1.2487269743145923,
          4.368164573737665,
          -1.4974890615207785,
          0.21554367088452894
        ],
        "bias": -1.0130706713102497,
        "value": 0.010421559557027518,
        "derivative": 0.010312950653426847,
        "error": 1.0335929736986137E-6
      },
      {
        "index": 6,
        "weights": [
          -1.3169036891728545,
          -1.983748495867494,
          -1.9975379104457327,
          -2.1194895302047225,
          -1.914045580907068,
          -0.3068036408884644,
          2.845050654623798,
          7.217165106858046,
          -2.2076607799187804,
          2.3193935500743703,
          -2.0494860338639316,
          -2.2837086640575914,
          4.048465620976667,
          -2.1099912631417386,
          -0.10205634045154521
        ],
        "bias": -2.075654987412018,
        "value": 4.863775447468377E-7,
        "derivative": 4.863773081837216E-7,
        "error": 1.1428799972832288E-14
      },
      {
        "index": 7,
        "weights": [
          2.8838451039583233,
          -0.19826361313235424,
          -0.8953782479624334,
          5.071670055503879,
          -0.9399104644277764,
          -1.6172055548934992,
          -1.0268916653952995,
          -0.946561509656495,
          -0.8940045299364685,
          -2.390617138624395,
          1.062940339843074,
          -1.606032554425942,
          -0.7822540712746658,
          -0.6303440499314727,
          -7.023769355763646
        ],
        "bias": -0.6045941383896096,
        "value": 7.903179816876835E-7,
        "derivative": 7.903173570851712E-7,
        "error": 2.428167517625522E-4
      },
      {
        "index": 8,
        "weights": [
          -0.07323860790021612,
          -0.5583110247113793,
          -0.5391936874063514,
          -3.3911313822255047,
          -1.0801876280717173,
          0.5412066063879922,
          4.398449039485612,
          -6.528555833361789,
          -0.9175124831146871,
          4.121782048145137,
          -2.1905142200874073,
          -1.4398859295741617,
          -7.356445249635128,
          -1.2090434765052225,
          0.9922096740745362
        ],
        "bias": -1.1141405677260323,
        "value": 0.0063869445332951046,
        "derivative": 0.006346151472823716,
        "error": 3.5009378529932426E-8
      },
      {
        "index": 9,
        "weights": [
          -3.3286025081113273,
          -0.6244561690181241,
          -0.6842824088104912,
          -3.064767659238258,
          -1.092546736678284,
          2.2831728283503216,
          -2.534541929675772,
          -1.7726449215386149,
          -1.2863709466272437,
          -4.748360212931304,
          -2.757162456928539,
          -0.008588266147813257,
          -1.3292442908212594,
          -1.231431947565714,
          8.131497918237281
        ],
        "bias": -1.2620228862591611,
        "value": 0.9754122225247867,
        "derivative": 0.02398321867404274,
        "error": 2.2834999080507003E-8
      }
    ]
  ]
}